digraph Tree {
node [shape=box, style="filled, rounded", color="black", fontname="helvetica"] ;
edge [fontname="helvetica"] ;
0 [label="directory_length <= 1.5\ngini = 0.481\nsamples = 129698\nvalue = [77546, 52152]\nclass = legitimate", fillcolor="#f6d6be"] ;
1 [label="qty_slash_url <= 0.5\ngini = 0.161\nsamples = 74617\nvalue = [68035, 6582]\nclass = legitimate", fillcolor="#e88d4c"] ;
0 -> 1 [labeldistance=2.5, labelangle=45, headlabel="True"] ;
2 [label="gini = 0.041\nsamples = 59703\nvalue = [58438, 1265]\nclass = legitimate", fillcolor="#e6843d"] ;
1 -> 2 ;
3 [label="gini = 0.459\nsamples = 14914\nvalue = [9597, 5317]\nclass = legitimate", fillcolor="#f3c7a7"] ;
1 -> 3 ;
4 [label="qty_dot_domain <= 1.5\ngini = 0.286\nsamples = 55081\nvalue = [9511, 45570]\nclass = Phishing", fillcolor="#62b1ea"] ;
0 -> 4 [labeldistance=2.5, labelangle=-45, headlabel="False"] ;
5 [label="gini = 0.106\nsamples = 23934\nvalue = [1344, 22590]\nclass = Phishing", fillcolor="#45a3e7"] ;
4 -> 5 ;
6 [label="gini = 0.387\nsamples = 31147\nvalue = [8167, 22980]\nclass = Phishing", fillcolor="#7fc0ee"] ;
4 -> 6 ;
}